<?xml version="1.0"?>
<opencv_storage>
<!-- Created using Computer Vision System Toolbox(tm) for MATLAB(R) -->
<!-- Version 9.1.0.441655 (R2016b) -->
<!-- Compatible with OpenCV 2.4 -->
<cascade>
  <stageType>BOOST</stageType>
  <featureType>HOG</featureType>
  <height>32</height>
  <width>62</width>
  <stageParams>
    <boostType>GAB</boostType>
    <minHitRate>9.9500000476837158e-01</minHitRate>
    <maxFalseAlarm>5.0000000745058060e-02</maxFalseAlarm>
    <weightTrimRate>9.4999999999999996e-01</weightTrimRate>
    <maxDepth>1</maxDepth>
    <maxWeakCount>100</maxWeakCount></stageParams>
  <featureParams>
    <maxCatCount>0</maxCatCount>
    <featSize>36</featSize></featureParams>
  <stageNum>5</stageNum>
  <stages>
    <!-- stage 0 -->
    <_>
      <maxWeakCount>2</maxWeakCount>
      <stageThreshold>2.9584662988781929e-02</stageThreshold>
      <weakClassifiers>
        <_>
          <internalNodes>
            0 -1 6 4.1516661643981934e-02</internalNodes>
          <leafValues>
            -8.9189189672470093e-01 1.</leafValues></_>
        <_>
          <internalNodes>
            0 -1 4 4.5661434531211853e-02</internalNodes>
          <leafValues>
            -9.2382252216339111e-01 9.2147654294967651e-01</leafValues></_></weakClassifiers></_>
    <!-- stage 1 -->
    <_>
      <maxWeakCount>3</maxWeakCount>
      <stageThreshold>6.8042862415313721e-01</stageThreshold>
      <weakClassifiers>
        <_>
          <internalNodes>
            0 -1 8 6.4450010657310486e-02</internalNodes>
          <leafValues>
            -9.6969699859619141e-01 7.4358975887298584e-01</leafValues></_>
        <_>
          <internalNodes>
            0 -1 0 5.1463864743709564e-02</internalNodes>
          <leafValues>
            -8.7075734138488770e-01 9.1172343492507935e-01</leafValues></_>
        <_>
          <internalNodes>
            0 -1 2 2.8758287429809570e-02</internalNodes>
          <leafValues>
            -9.7488451004028320e-01 8.0983734130859375e-01</leafValues></_></weakClassifiers></_>
    <!-- stage 2 -->
    <_>
      <maxWeakCount>4</maxWeakCount>
      <stageThreshold>-3.7280388176441193e-02</stageThreshold>
      <weakClassifiers>
        <_>
          <internalNodes>
            0 -1 1 1.4016449451446533e-01</internalNodes>
          <leafValues>
            -7.9487180709838867e-01 1.</leafValues></_>
        <_>
          <internalNodes>
            0 -1 10 6.8779692053794861e-02</internalNodes>
          <leafValues>
            -1. 6.4965516328811646e-01</leafValues></_>
        <_>
          <internalNodes>
            0 -1 11 5.4512817412614822e-02</internalNodes>
          <leafValues>
            -7.8518176078796387e-01 7.8042364120483398e-01</leafValues></_>
        <_>
          <internalNodes>
            0 -1 13 3.8642160594463348e-02</internalNodes>
          <leafValues>
            -8.0636906623840332e-01 8.9311802387237549e-01</leafValues></_></weakClassifiers></_>
    <!-- stage 3 -->
    <_>
      <maxWeakCount>3</maxWeakCount>
      <stageThreshold>3.5531252622604370e-01</stageThreshold>
      <weakClassifiers>
        <_>
          <internalNodes>
            0 -1 5 6.3836246728897095e-02</internalNodes>
          <leafValues>
            -8.3999997377395630e-01 9.3333333730697632e-01</leafValues></_>
        <_>
          <internalNodes>
            0 -1 7 3.8374066352844238e-02</internalNodes>
          <leafValues>
            -9.1542750597000122e-01 6.2251257896423340e-01</leafValues></_>
        <_>
          <internalNodes>
            0 -1 3 4.3940782546997070e-02</internalNodes>
          <leafValues>
            -9.5142525434494019e-01 5.7279992103576660e-01</leafValues></_></weakClassifiers></_>
    <!-- stage 4 -->
    <_>
      <maxWeakCount>3</maxWeakCount>
      <stageThreshold>1.0212311744689941e+00</stageThreshold>
      <weakClassifiers>
        <_>
          <internalNodes>
            0 -1 12 2.4329770356416702e-02</internalNodes>
          <leafValues>
            -1. 8.9189189672470093e-01</leafValues></_>
        <_>
          <internalNodes>
            0 -1 12 2.9571745544672012e-02</internalNodes>
          <leafValues>
            -8.2684153318405151e-01 1.</leafValues></_>
        <_>
          <internalNodes>
            0 -1 9 1.5960384160280228e-02</internalNodes>
          <leafValues>
            -8.4835761785507202e-01 9.5618087053298950e-01</leafValues></_></weakClassifiers></_></stages>
  <features>
    <_>
      <rect>
        8 0 8 8 19</rect></_>
    <_>
      <rect>
        12 0 8 8 12</rect></_>
    <_>
      <rect>
        36 16 8 8 30</rect></_>
    <_>
      <rect>
        40 12 8 8 3</rect></_>
    <_>
      <rect>
        44 0 8 8 24</rect></_>
    <_>
      <rect>
        44 0 8 8 32</rect></_>
    <_>
      <rect>
        40 0 8 16 6</rect></_>
    <_>
      <rect>
        44 0 8 16 5</rect></_>
    <_>
      <rect>
        8 8 16 8 30</rect></_>
    <_>
      <rect>
        12 0 16 8 18</rect></_>
    <_>
      <rect>
        12 12 16 8 13</rect></_>
    <_>
      <rect>
        28 0 16 8 32</rect></_>
    <_>
      <rect>
        28 4 16 8 34</rect></_>
    <_>
      <rect>
        0 0 16 16 26</rect></_></features></cascade>
</opencv_storage>
